Language model created by QuickLM on Wed Sep 21 09:29:04 EDT 2016
Copyright (c) 1996-2010 Carnegie Mellon University and Alexander I. Rudnicky

The model is in standard ARPA format, designed by Doug Paul while he was at MITRE.

The code that was used to produce this language model is available in Open Source.
Please visit http://www.speech.cs.cmu.edu/tools/ for more information

The (fixed) discount mass is 0.5. The backoffs are computed using the ratio method.
This model based on a corpus of 29 sentences and 42 words

\data\
ngram 1=42
ngram 2=70
ngram 3=66

\1-grams:
-0.9424 </s> -0.3010
-0.9424 <s> -0.2484
-2.1038 一张 -0.2976
-2.1038 一段 -0.2976
-2.4048 什么 -0.2993
-2.1038 今天 -0.2959
-2.1038 你 -0.2976
-1.5597 关闭 -0.2782
-2.4048 叫 -0.2993
-2.4048 名字 -0.2484
-2.4048 向前 -0.2976
-2.4048 向右 -0.2976
-2.4048 向后 -0.2976
-2.4048 向左 -0.2976
-2.4048 声音 -0.2484
-2.1038 天气 -0.2464
-2.4048 如何 -0.2484
-2.1038 客厅 -0.2976
-2.4048 小黄 -0.2484
-2.1038 录 -0.2976
-1.5017 打开 -0.2764
-2.1038 拍 -0.2976
-2.4048 是 -0.2993
-2.4048 浏览器 -0.2484
-2.4048 照片 -0.2484
-2.1038 电视 -0.2484
-2.4048 的 -0.2976
-2.1038 的灯 -0.2484
-2.4048 相片 -0.2484
-2.1038 空调 -0.2484
-2.4048 窗口 -0.2484
-2.1038 窗户 -0.2484
-2.4048 系统 -0.2484
-2.4048 视频 -0.2484
-2.4048 记事本 -0.2484
-2.4048 谁 -0.2484
-2.1038 走 -0.2484
-2.1038 转 -0.2484
-2.4048 退出 -0.2993
-2.1038 音乐 -0.2484
-2.1038 风扇 -0.2484
-2.4048 ﻿小黄 -0.2993

\2-grams:
-1.4624 <s> 今天 0.0000
-1.4624 <s> 你 0.0000
-0.9183 <s> 关闭 -0.0000
-1.7634 <s> 向前 0.0000
-1.7634 <s> 向右 0.0000
-1.7634 <s> 向后 0.0000
-1.7634 <s> 向左 0.0000
-1.4624 <s> 录 0.0000
-0.8603 <s> 打开 0.0000
-1.4624 <s> 拍 0.0000
-1.7634 <s> 退出 0.0000
-1.7634 <s> ﻿小黄 0.0000
-0.6021 一张 照片 0.0000
-0.6021 一张 相片 0.0000
-0.6021 一段 声音 0.0000
-0.6021 一段 视频 0.0000
-0.3010 什么 名字 0.0000
-0.6021 今天 天气 -0.1761
-0.6021 今天 的 0.0000
-0.6021 你 叫 0.0000
-0.6021 你 是 0.0000
-1.1461 关闭 客厅 0.0000
-1.1461 关闭 电视 0.0000
-1.1461 关闭 空调 0.0000
-1.1461 关闭 窗口 0.0000
-1.1461 关闭 窗户 0.0000
-1.1461 关闭 音乐 0.0000
-1.1461 关闭 风扇 0.0000
-0.3010 叫 什么 0.0000
-0.3010 名字 </s> -0.3010
-0.3010 向前 走 0.0000
-0.3010 向右 转 0.0000
-0.3010 向后 走 0.0000
-0.3010 向左 转 0.0000
-0.3010 声音 </s> -0.3010
-0.6021 天气 </s> -0.3010
-0.6021 天气 如何 0.0000
-0.3010 如何 </s> -0.3010
-0.3010 客厅 的灯 0.0000
-0.3010 小黄 </s> -0.3010
-0.3010 录 一段 0.0000
-1.2041 打开 客厅 0.0000
-1.2041 打开 浏览器 0.0000
-1.2041 打开 电视 0.0000
-1.2041 打开 空调 0.0000
-1.2041 打开 窗户 0.0000
-1.2041 打开 记事本 0.0000
-1.2041 打开 音乐 0.0000
-1.2041 打开 风扇 0.0000
-0.3010 拍 一张 0.0000
-0.3010 是 谁 0.0000
-0.3010 浏览器 </s> -0.3010
-0.3010 照片 </s> -0.3010
-0.3010 电视 </s> -0.3010
-0.3010 的 天气 -0.1761
-0.3010 的灯 </s> -0.3010
-0.3010 相片 </s> -0.3010
-0.3010 空调 </s> -0.3010
-0.3010 窗口 </s> -0.3010
-0.3010 窗户 </s> -0.3010
-0.3010 系统 </s> -0.3010
-0.3010 视频 </s> -0.3010
-0.3010 记事本 </s> -0.3010
-0.3010 谁 </s> -0.3010
-0.3010 走 </s> -0.3010
-0.3010 转 </s> -0.3010
-0.3010 退出 系统 0.0000
-0.3010 音乐 </s> -0.3010
-0.3010 风扇 </s> -0.3010
-0.3010 ﻿小黄 小黄 0.0000

\3-grams:
-0.6021 <s> 今天 天气
-0.6021 <s> 今天 的
-0.6021 <s> 你 叫
-0.6021 <s> 你 是
-1.1461 <s> 关闭 客厅
-1.1461 <s> 关闭 电视
-1.1461 <s> 关闭 空调
-1.1461 <s> 关闭 窗口
-1.1461 <s> 关闭 窗户
-1.1461 <s> 关闭 音乐
-1.1461 <s> 关闭 风扇
-0.3010 <s> 向前 走
-0.3010 <s> 向右 转
-0.3010 <s> 向后 走
-0.3010 <s> 向左 转
-0.3010 <s> 录 一段
-1.2041 <s> 打开 客厅
-1.2041 <s> 打开 浏览器
-1.2041 <s> 打开 电视
-1.2041 <s> 打开 空调
-1.2041 <s> 打开 窗户
-1.2041 <s> 打开 记事本
-1.2041 <s> 打开 音乐
-1.2041 <s> 打开 风扇
-0.3010 <s> 拍 一张
-0.3010 <s> 退出 系统
-0.3010 <s> ﻿小黄 小黄
-0.3010 一张 照片 </s>
-0.3010 一张 相片 </s>
-0.3010 一段 声音 </s>
-0.3010 一段 视频 </s>
-0.3010 什么 名字 </s>
-0.3010 今天 天气 如何
-0.3010 今天 的 天气
-0.3010 你 叫 什么
-0.3010 你 是 谁
-0.3010 关闭 客厅 的灯
-0.3010 关闭 电视 </s>
-0.3010 关闭 空调 </s>
-0.3010 关闭 窗口 </s>
-0.3010 关闭 窗户 </s>
-0.3010 关闭 音乐 </s>
-0.3010 关闭 风扇 </s>
-0.3010 叫 什么 名字
-0.3010 向前 走 </s>
-0.3010 向右 转 </s>
-0.3010 向后 走 </s>
-0.3010 向左 转 </s>
-0.3010 天气 如何 </s>
-0.3010 客厅 的灯 </s>
-0.6021 录 一段 声音
-0.6021 录 一段 视频
-0.3010 打开 客厅 的灯
-0.3010 打开 浏览器 </s>
-0.3010 打开 电视 </s>
-0.3010 打开 空调 </s>
-0.3010 打开 窗户 </s>
-0.3010 打开 记事本 </s>
-0.3010 打开 音乐 </s>
-0.3010 打开 风扇 </s>
-0.6021 拍 一张 照片
-0.6021 拍 一张 相片
-0.3010 是 谁 </s>
-0.3010 的 天气 </s>
-0.3010 退出 系统 </s>
-0.3010 ﻿小黄 小黄 </s>

\end\
